digraph Tree {
node [shape=box, style="rounded", color="black", fontname="helvetica"] ;
edge [fontname="helvetica"] ;
0 [label="cement_co2 <= 1.2\nsquared_error = 7.5\nsamples = 60\nvalue = 5.0"] ;
1 [label="cement_co2 <= 0.7\nsquared_error = 0.5\nsamples = 30\nvalue = 2.2"] ;
0 -> 1 [labeldistance=2.5, labelangle=45, headlabel="True"] ;
2 [label="cement_co2 <= 0.4\nsquared_error = 0.2\nsamples = 26\nvalue = 2.0"] ;
1 -> 2 ;
3 [label="squared_error = 0.1\nsamples = 19\nvalue = 1.8"] ;
2 -> 3 ;
4 [label="squared_error = 0.1\nsamples = 7\nvalue = 2.4"] ;
2 -> 4 ;
5 [label="population <= 12491452.0\nsquared_error = 0.0\nsamples = 4\nvalue = 3.8"] ;
1 -> 5 ;
6 [label="squared_error = 0.0\nsamples = 1\nvalue = 3.4"] ;
5 -> 6 ;
7 [label="squared_error = 0.0\nsamples = 3\nvalue = 3.9"] ;
5 -> 7 ;
8 [label="gdp <= 209794228224.0\nsquared_error = 1.7\nsamples = 30\nvalue = 7.2"] ;
0 -> 8 [labeldistance=2.5, labelangle=-45, headlabel="False"] ;
9 [label="cement_co2 <= 2.2\nsquared_error = 0.4\nsamples = 8\nvalue = 5.6"] ;
8 -> 9 ;
10 [label="squared_error = 0.1\nsamples = 5\nvalue = 5.2"] ;
9 -> 10 ;
11 [label="squared_error = 0.1\nsamples = 3\nvalue = 6.3"] ;
9 -> 11 ;
12 [label="cement_co2 <= 3.6\nsquared_error = 0.7\nsamples = 22\nvalue = 7.9"] ;
8 -> 12 ;
13 [label="squared_error = 0.3\nsamples = 12\nvalue = 7.3"] ;
12 -> 13 ;
14 [label="squared_error = 0.1\nsamples = 10\nvalue = 8.6"] ;
12 -> 14 ;
}