digraph Tree {
node [shape=box, style="rounded", color="black", fontname="helvetica"] ;
edge [fontname="helvetica"] ;
0 [label="cement_co2 <= 1.3\nsquared_error = 6.8\nsamples = 59\nvalue = 5.2"] ;
1 [label="cement_co2 <= 0.7\nsquared_error = 0.5\nsamples = 24\nvalue = 2.3"] ;
0 -> 1 [labeldistance=2.5, labelangle=45, headlabel="True"] ;
2 [label="cement_co2 <= 0.4\nsquared_error = 0.1\nsamples = 20\nvalue = 2.1"] ;
1 -> 2 ;
3 [label="coal_co2 <= 44.2\nsquared_error = 0.1\nsamples = 13\nvalue = 1.9"] ;
2 -> 3 ;
4 [label="population <= 11095784.5\nsquared_error = 0.0\nsamples = 10\nvalue = 1.8"] ;
3 -> 4 ;
5 [label="gdp <= 74405257216.0\nsquared_error = 0.0\nsamples = 7\nvalue = 1.6"] ;
4 -> 5 ;
6 [label="squared_error = 0.0\nsamples = 1\nvalue = 1.3"] ;
5 -> 6 ;
7 [label="coal_co2 <= 37.0\nsquared_error = 0.0\nsamples = 6\nvalue = 1.7"] ;
5 -> 7 ;
8 [label="gdp <= 81829146624.0\nsquared_error = 0.0\nsamples = 3\nvalue = 1.6"] ;
7 -> 8 ;
9 [label="population <= 10229428.0\nsquared_error = 0.0\nsamples = 2\nvalue = 1.6"] ;
8 -> 9 ;
10 [label="squared_error = 0.0\nsamples = 1\nvalue = 1.7"] ;
9 -> 10 ;
11 [label="squared_error = -0.0\nsamples = 1\nvalue = 1.6"] ;
9 -> 11 ;
12 [label="squared_error = -0.0\nsamples = 1\nvalue = 1.5"] ;
8 -> 12 ;
13 [label="coal_co2 <= 41.5\nsquared_error = 0.0\nsamples = 3\nvalue = 1.7"] ;
7 -> 13 ;
14 [label="coal_co2 <= 38.4\nsquared_error = 0.0\nsamples = 2\nvalue = 1.8"] ;
13 -> 14 ;
15 [label="squared_error = 0.0\nsamples = 1\nvalue = 1.8"] ;
14 -> 15 ;
16 [label="squared_error = 0.0\nsamples = 1\nvalue = 1.8"] ;
14 -> 16 ;
17 [label="squared_error = 0.0\nsamples = 1\nvalue = 1.6"] ;
13 -> 17 ;
18 [label="population <= 11938713.5\nsquared_error = 0.0\nsamples = 3\nvalue = 2.0"] ;
4 -> 18 ;
19 [label="gdp <= 86277152768.0\nsquared_error = 0.0\nsamples = 2\nvalue = 1.9"] ;
18 -> 19 ;
20 [label="squared_error = 0.0\nsamples = 1\nvalue = 1.9"] ;
19 -> 20 ;
21 [label="squared_error = 0.0\nsamples = 1\nvalue = 1.9"] ;
19 -> 21 ;
22 [label="squared_error = 0.0\nsamples = 1\nvalue = 2.0"] ;
18 -> 22 ;
23 [label="gdp <= 91479105536.0\nsquared_error = 0.0\nsamples = 3\nvalue = 2.1"] ;
3 -> 23 ;
24 [label="gdp <= 83164585984.0\nsquared_error = 0.0\nsamples = 2\nvalue = 2.1"] ;
23 -> 24 ;
25 [label="squared_error = 0.0\nsamples = 1\nvalue = 2.1"] ;
24 -> 25 ;
26 [label="squared_error = 0.0\nsamples = 1\nvalue = 2.1"] ;
24 -> 26 ;
27 [label="squared_error = -0.0\nsamples = 1\nvalue = 1.9"] ;
23 -> 27 ;
28 [label="cement_co2 <= 0.5\nsquared_error = 0.1\nsamples = 7\nvalue = 2.4"] ;
2 -> 28 ;
29 [label="population <= 12353674.5\nsquared_error = 0.0\nsamples = 4\nvalue = 2.2"] ;
28 -> 29 ;
30 [label="cement_co2 <= 0.5\nsquared_error = 0.0\nsamples = 3\nvalue = 2.2"] ;
29 -> 30 ;
31 [label="gdp <= 102216065024.0\nsquared_error = 0.0\nsamples = 2\nvalue = 2.1"] ;
30 -> 31 ;
32 [label="squared_error = 0.0\nsamples = 1\nvalue = 2.1"] ;
31 -> 32 ;
33 [label="squared_error = -0.0\nsamples = 1\nvalue = 2.1"] ;
31 -> 33 ;
34 [label="squared_error = 0.0\nsamples = 1\nvalue = 2.3"] ;
30 -> 34 ;
35 [label="squared_error = -0.0\nsamples = 1\nvalue = 2.5"] ;
29 -> 35 ;
36 [label="population <= 11978220.0\nsquared_error = 0.0\nsamples = 3\nvalue = 2.6"] ;
28 -> 36 ;
37 [label="squared_error = 0.0\nsamples = 1\nvalue = 2.5"] ;
36 -> 37 ;
38 [label="coal_co2 <= 52.2\nsquared_error = 0.0\nsamples = 2\nvalue = 2.7"] ;
36 -> 38 ;
39 [label="squared_error = 0.0\nsamples = 1\nvalue = 2.8"] ;
38 -> 39 ;
40 [label="squared_error = -0.0\nsamples = 1\nvalue = 2.6"] ;
38 -> 40 ;
41 [label="cement_co2 <= 1.2\nsquared_error = 0.1\nsamples = 4\nvalue = 4.0"] ;
1 -> 41 ;
42 [label="population <= 12819211.0\nsquared_error = 0.0\nsamples = 3\nvalue = 3.9"] ;
41 -> 42 ;
43 [label="population <= 12616561.5\nsquared_error = 0.0\nsamples = 2\nvalue = 3.8"] ;
42 -> 43 ;
44 [label="squared_error = 0.0\nsamples = 1\nvalue = 3.8"] ;
43 -> 44 ;
45 [label="squared_error = -0.0\nsamples = 1\nvalue = 3.9"] ;
43 -> 45 ;
46 [label="squared_error = 0.0\nsamples = 1\nvalue = 4.1"] ;
42 -> 46 ;
47 [label="squared_error = -0.0\nsamples = 1\nvalue = 4.4"] ;
41 -> 47 ;
48 [label="population <= 14941537.0\nsquared_error = 1.6\nsamples = 35\nvalue = 7.2"] ;
0 -> 48 [labeldistance=2.5, labelangle=-45, headlabel="False"] ;
49 [label="population <= 14245994.0\nsquared_error = 0.3\nsamples = 9\nvalue = 5.5"] ;
48 -> 49 ;
50 [label="coal_co2 <= 66.4\nsquared_error = 0.1\nsamples = 6\nvalue = 5.2"] ;
49 -> 50 ;
51 [label="coal_co2 <= 64.5\nsquared_error = 0.0\nsamples = 3\nvalue = 4.9"] ;
50 -> 51 ;
52 [label="squared_error = 0.0\nsamples = 1\nvalue = 5.0"] ;
51 -> 52 ;
53 [label="gdp <= 113947217920.0\nsquared_error = 0.0\nsamples = 2\nvalue = 4.8"] ;
51 -> 53 ;
54 [label="squared_error = 0.0\nsamples = 1\nvalue = 4.9"] ;
53 -> 54 ;
55 [label="squared_error = -0.0\nsamples = 1\nvalue = 4.8"] ;
53 -> 55 ;
56 [label="population <= 14092932.5\nsquared_error = 0.0\nsamples = 3\nvalue = 5.4"] ;
50 -> 56 ;
57 [label="coal_co2 <= 66.9\nsquared_error = 0.0\nsamples = 2\nvalue = 5.4"] ;
56 -> 57 ;
58 [label="squared_error = 0.0\nsamples = 1\nvalue = 5.3"] ;
57 -> 58 ;
59 [label="squared_error = 0.0\nsamples = 1\nvalue = 5.4"] ;
57 -> 59 ;
60 [label="squared_error = 0.0\nsamples = 1\nvalue = 5.6"] ;
56 -> 60 ;
61 [label="coal_co2 <= 70.1\nsquared_error = 0.1\nsamples = 3\nvalue = 6.3"] ;
49 -> 61 ;
62 [label="gdp <= 200306352128.0\nsquared_error = 0.0\nsamples = 2\nvalue = 6.5"] ;
61 -> 62 ;
63 [label="squared_error = 0.0\nsamples = 1\nvalue = 6.5"] ;
62 -> 63 ;
64 [label="squared_error = -0.0\nsamples = 1\nvalue = 6.6"] ;
62 -> 64 ;
65 [label="squared_error = -0.0\nsamples = 1\nvalue = 5.9"] ;
61 -> 65 ;
66 [label="cement_co2 <= 3.2\nsquared_error = 0.5\nsamples = 26\nvalue = 7.8"] ;
48 -> 66 ;
67 [label="population <= 18003903.0\nsquared_error = 0.2\nsamples = 9\nvalue = 7.0"] ;
66 -> 67 ;
68 [label="cement_co2 <= 2.9\nsquared_error = 0.1\nsamples = 6\nvalue = 7.2"] ;
67 -> 68 ;
69 [label="squared_error = 0.0\nsamples = 1\nvalue = 7.8"] ;
68 -> 69 ;
70 [label="cement_co2 <= 3.1\nsquared_error = 0.0\nsamples = 5\nvalue = 7.1"] ;
68 -> 70 ;
71 [label="population <= 17681643.0\nsquared_error = 0.1\nsamples = 3\nvalue = 7.3"] ;
70 -> 71 ;
72 [label="coal_co2 <= 47.5\nsquared_error = 0.0\nsamples = 2\nvalue = 7.4"] ;
71 -> 72 ;
73 [label="squared_error = 0.0\nsamples = 1\nvalue = 7.3"] ;
72 -> 73 ;
74 [label="squared_error = 0.0\nsamples = 1\nvalue = 7.6"] ;
72 -> 74 ;
75 [label="squared_error = 0.0\nsamples = 1\nvalue = 6.9"] ;
71 -> 75 ;
76 [label="gdp <= 380682280960.0\nsquared_error = 0.0\nsamples = 2\nvalue = 7.0"] ;
70 -> 76 ;
77 [label="squared_error = 0.0\nsamples = 1\nvalue = 6.9"] ;
76 -> 77 ;
78 [label="squared_error = 0.0\nsamples = 1\nvalue = 7.0"] ;
76 -> 78 ;
79 [label="coal_co2 <= 43.9\nsquared_error = 0.0\nsamples = 3\nvalue = 6.5"] ;
67 -> 79 ;
80 [label="coal_co2 <= 42.1\nsquared_error = 0.0\nsamples = 2\nvalue = 6.4"] ;
79 -> 80 ;
81 [label="squared_error = 0.0\nsamples = 1\nvalue = 6.4"] ;
80 -> 81 ;
82 [label="squared_error = 0.0\nsamples = 1\nvalue = 6.4"] ;
80 -> 82 ;
83 [label="squared_error = -0.0\nsamples = 1\nvalue = 6.7"] ;
79 -> 83 ;
84 [label="coal_co2 <= 68.0\nsquared_error = 0.2\nsamples = 17\nvalue = 8.3"] ;
66 -> 84 ;
85 [label="population <= 17439118.0\nsquared_error = 0.0\nsamples = 6\nvalue = 7.8"] ;
84 -> 85 ;
86 [label="gdp <= 284168658944.0\nsquared_error = 0.0\nsamples = 2\nvalue = 8.1"] ;
85 -> 86 ;
87 [label="squared_error = 0.0\nsamples = 1\nvalue = 8.1"] ;
86 -> 87 ;
88 [label="squared_error = 0.0\nsamples = 1\nvalue = 8.1"] ;
86 -> 88 ;
89 [label="coal_co2 <= 47.5\nsquared_error = 0.0\nsamples = 4\nvalue = 7.7"] ;
85 -> 89 ;
90 [label="squared_error = 0.0\nsamples = 1\nvalue = 7.6"] ;
89 -> 90 ;
91 [label="population <= 17610756.0\nsquared_error = 0.0\nsamples = 3\nvalue = 7.7"] ;
89 -> 91 ;
92 [label="squared_error = -0.0\nsamples = 1\nvalue = 7.7"] ;
91 -> 92 ;
93 [label="coal_co2 <= 49.3\nsquared_error = 0.0\nsamples = 2\nvalue = 7.7"] ;
91 -> 93 ;
94 [label="squared_error = 0.0\nsamples = 1\nvalue = 7.7"] ;
93 -> 94 ;
95 [label="squared_error = 0.0\nsamples = 1\nvalue = 7.7"] ;
93 -> 95 ;
96 [label="gdp <= 286216503296.0\nsquared_error = 0.0\nsamples = 11\nvalue = 8.6"] ;
84 -> 96 ;
97 [label="gdp <= 272202833920.0\nsquared_error = 0.0\nsamples = 6\nvalue = 8.4"] ;
96 -> 97 ;
98 [label="squared_error = 0.0\nsamples = 1\nvalue = 8.6"] ;
97 -> 98 ;
99 [label="gdp <= 282681851904.0\nsquared_error = 0.0\nsamples = 5\nvalue = 8.4"] ;
97 -> 99 ;
100 [label="gdp <= 276723105792.0\nsquared_error = 0.0\nsamples = 4\nvalue = 8.4"] ;
99 -> 100 ;
101 [label="population <= 16064621.5\nsquared_error = 0.0\nsamples = 2\nvalue = 8.4"] ;
100 -> 101 ;
102 [label="squared_error = 0.0\nsamples = 1\nvalue = 8.4"] ;
101 -> 102 ;
103 [label="squared_error = 0.0\nsamples = 1\nvalue = 8.4"] ;
101 -> 103 ;
104 [label="coal_co2 <= 70.9\nsquared_error = 0.0\nsamples = 2\nvalue = 8.3"] ;
100 -> 104 ;
105 [label="squared_error = 0.0\nsamples = 1\nvalue = 8.3"] ;
104 -> 105 ;
106 [label="squared_error = 0.0\nsamples = 1\nvalue = 8.3"] ;
104 -> 106 ;
107 [label="squared_error = -0.0\nsamples = 1\nvalue = 8.5"] ;
99 -> 107 ;
108 [label="coal_co2 <= 71.5\nsquared_error = 0.0\nsamples = 5\nvalue = 8.7"] ;
96 -> 108 ;
109 [label="gdp <= 294182043648.0\nsquared_error = 0.0\nsamples = 2\nvalue = 8.7"] ;
108 -> 109 ;
110 [label="squared_error = 0.0\nsamples = 1\nvalue = 8.6"] ;
109 -> 110 ;
111 [label="squared_error = 0.0\nsamples = 1\nvalue = 8.7"] ;
109 -> 111 ;
112 [label="cement_co2 <= 3.9\nsquared_error = 0.0\nsamples = 3\nvalue = 8.8"] ;
108 -> 112 ;
113 [label="population <= 16772273.0\nsquared_error = 0.0\nsamples = 2\nvalue = 8.8"] ;
112 -> 113 ;
114 [label="squared_error = 0.0\nsamples = 1\nvalue = 8.8"] ;
113 -> 114 ;
115 [label="squared_error = -0.0\nsamples = 1\nvalue = 8.8"] ;
113 -> 115 ;
116 [label="squared_error = 0.0\nsamples = 1\nvalue = 8.9"] ;
112 -> 116 ;
}